/*!
 * The following copyright notice may not be removed under any circumstances.
 * 
 * Copyright:
 * 4.1 (c)1986-92 by Richard A. Ware. All Rights Reserved.
 */
Cufon.registerFont({"w":541,"face":{"font-family":"AlexandriaFLF","font-weight":500,"font-style":"italic","font-stretch":"normal","units-per-em":"1000","panose-1":"2 0 6 3 7 0 0 9 0 4","ascent":"800","descent":"-200","x-height":"9","bbox":"-16 -889.082 1210 203","underline-thickness":"19","underline-position":"-124","slope":"-12","unicode-range":"U+0020-U+2122"},"glyphs":{" ":{"w":352},"!":{"d":"238,-714r-41,0r-94,532r41,0xm100,-68v-23,0,-38,19,-38,39v0,18,11,31,32,31v23,0,38,-18,38,-38v0,-19,-11,-32,-32,-32","w":176},"\"":{"d":"342,-727r-41,0r-17,160r20,0xm230,-727r-41,0r-18,160r21,0","w":270},"#":{"d":"350,-642r-24,0r-53,126r-113,0r-13,24r116,0r-48,114r-103,0r-12,25r105,0r-54,126r25,0r54,-126r136,0r-54,131r25,0r54,-131r109,0r12,-25r-111,0r49,-114r102,0r13,-24r-105,0r52,-126r-24,0r-52,126r-138,0xm288,-492r138,0r-48,114r-138,0","w":515},"$":{"d":"398,-685v53,10,81,37,110,80r-8,44r36,0r25,-144r-36,0r-9,49v-27,-36,-60,-56,-112,-66r8,-48r-41,0r-7,46v-91,6,-151,51,-178,120v-8,21,-11,41,-11,62v1,94,61,135,128,162r-63,354v-61,-12,-112,-60,-143,-106r12,-66r-36,0r-35,198r35,0r16,-80v32,44,79,81,145,93r-8,48r40,0r7,-45v111,2,179,-54,214,-132v11,-26,16,-53,16,-82v0,-118,-74,-169,-155,-204xm310,-419v-70,-28,-117,-87,-87,-174v19,-55,66,-86,134,-94xm341,-362v72,30,122,78,122,166v0,84,-49,137,-111,162v-24,9,-44,13,-71,12","w":500},"%":{"d":"786,-714r-40,0r-565,714r39,0xm285,-356v-125,3,-191,-107,-151,-226v22,-67,79,-116,169,-116v104,0,164,61,164,161v0,82,-43,137,-103,165v-23,11,-49,16,-79,16xm444,-390v42,-45,73,-137,43,-218v-26,-71,-85,-121,-183,-121v-107,0,-170,58,-200,137v-29,76,-7,167,34,210v32,34,79,59,144,59v74,0,126,-29,162,-67xm679,-20v-125,3,-191,-107,-151,-226v22,-67,79,-116,169,-116v104,0,164,61,164,161v0,82,-43,137,-103,165v-23,11,-49,16,-79,16xm838,-54v42,-45,73,-137,43,-218v-26,-71,-85,-121,-183,-121v-107,0,-170,58,-200,137v-29,76,-7,167,34,210v32,34,79,59,144,59v74,0,126,-29,162,-67","w":839},"&":{"d":"236,-36v-90,-2,-146,-48,-146,-135v0,-88,44,-132,97,-175v23,-18,52,-38,86,-57r153,308v-51,27,-110,61,-190,59xm478,-87v89,-65,139,-165,170,-295r62,0r6,-32r-170,0r-6,32r68,0v-21,111,-74,205,-147,262r-161,-325v-21,-37,-38,-100,-14,-145v26,-47,77,-75,149,-76v58,-1,113,12,143,28r-13,69r41,0r15,-92v-55,-39,-193,-61,-277,-29v-75,29,-130,97,-109,200v4,16,12,36,20,52v-87,51,-161,101,-194,196v-15,44,-16,98,1,140v26,62,80,105,166,106v95,1,155,-31,216,-64r29,60r49,0","w":673},"'":{"d":"229,-714r-42,0r-19,159r22,0","w":164},"(":{"d":"150,62v-26,-321,31,-579,144,-816r-41,0v-106,219,-160,438,-151,734v1,27,4,54,7,82r41,0","w":260},")":{"d":"217,-754v26,321,-30,580,-144,816r41,0v106,-219,159,-438,150,-734v-1,-27,-3,-54,-6,-82r-41,0","w":281},"*":{"d":"226,-700v-32,4,-18,59,-13,85v-18,-18,-30,-50,-59,-55v-17,-3,-17,20,-7,29v16,15,40,24,62,33v-23,5,-52,7,-71,16v-14,5,-10,30,8,28v29,-3,47,-24,66,-38v-6,18,-21,42,-21,66v0,10,3,18,14,18v18,1,19,-17,20,-34v0,-17,-2,-33,-7,-50v19,18,32,50,63,54v16,2,14,-21,4,-29v-16,-13,-40,-22,-62,-31v24,-2,53,-9,70,-18v15,-7,10,-28,-6,-27v-29,3,-48,25,-68,38v7,-20,21,-41,21,-66v0,-10,-3,-20,-14,-19","w":214},"+":{"d":"217,-392r-102,0r-7,41r102,0r-17,102r41,0r17,-102r102,0r7,-41r-102,0r19,-102r-41,0","w":332},",":{"d":"144,-54r-33,-15r-103,163r12,9","w":163},"-":{"d":"327,-392r-207,0r-7,41r206,0","w":309},".":{"d":"92,-62v-21,0,-36,16,-36,34v0,16,12,28,31,28v21,0,35,-15,36,-33v0,-16,-12,-29,-31,-29","w":163},"\/":{"d":"434,-714r-40,0r-371,714r40,0","w":316},"0":{"d":"446,-27v126,-87,194,-291,150,-497v-16,-75,-53,-137,-110,-172v-64,-40,-162,-31,-222,11v-102,72,-163,211,-163,379v0,132,41,239,124,290v64,40,161,31,221,-11xm248,-54v-129,-80,-121,-374,-40,-508v37,-60,88,-120,175,-120v106,0,153,82,172,174v37,180,-20,364,-125,444v-49,38,-128,44,-182,10"},"1":{"d":"422,-713r-122,0r-6,35r82,0r-114,642r-81,0r-7,36r205,0r6,-36r-82,0"},"2":{"d":"396,-678v83,0,145,43,145,125v0,85,-49,121,-103,158v-22,14,-47,29,-75,44v-118,64,-230,132,-269,277r-21,74r417,0r7,-41r-358,0v22,-112,88,-181,171,-231r73,-41v75,-42,151,-81,187,-160v18,-40,24,-98,4,-141v-28,-62,-87,-104,-176,-104v-128,0,-206,64,-229,167r46,0v20,-78,81,-127,181,-127"},"3":{"d":"432,-376v85,-16,145,-71,145,-174v0,-88,-53,-136,-122,-160v-51,-18,-129,-16,-177,4v-63,26,-109,73,-122,143r43,0v19,-73,73,-120,169,-120v94,0,165,48,165,134v0,120,-102,154,-234,147r-6,41v39,1,72,-4,101,10v50,24,87,72,87,146v0,113,-77,172,-191,172v-90,0,-149,-42,-162,-118r-48,0v17,100,87,159,206,159v113,0,189,-48,224,-128v12,-27,18,-57,18,-90v0,-85,-42,-137,-96,-166"},"4":{"d":"471,-214r90,-510r-30,0r-455,522r-5,28r351,0r-23,133r-41,0r-7,41r123,0r8,-41r-41,0r23,-133r64,0r7,-40r-64,0xm430,-214r-294,0r367,-421"},"5":{"d":"65,-136v35,85,106,144,228,144v140,0,217,-74,249,-180v19,-64,19,-131,-4,-188v-37,-93,-141,-159,-272,-130v-17,4,-30,10,-41,16r57,-196r219,0r-1,52r41,0r0,-96r-288,0r-84,283r35,11v25,-17,70,-37,120,-36v92,2,149,47,177,114v22,52,16,132,-5,180v-33,78,-100,129,-204,129v-99,0,-158,-50,-188,-118"},"6":{"d":"307,-650v62,-36,174,-37,239,-9r18,-36v-72,-32,-205,-33,-274,9v-96,59,-161,170,-194,296v-19,78,-27,174,-3,250v30,92,98,155,217,155v131,0,208,-69,242,-167v20,-58,24,-124,2,-182v-32,-81,-99,-139,-210,-139v-104,0,-166,45,-210,105v29,-118,77,-227,173,-282xm230,-38v-84,-39,-125,-144,-101,-263v39,-71,102,-133,214,-133v120,0,185,76,185,193v0,99,-50,166,-121,201v-48,24,-127,25,-177,2"},"7":{"d":"582,-674v-183,155,-315,358,-379,633r-57,0r-7,41r153,0r7,-41r-55,0v65,-279,202,-473,390,-632r7,-41r-478,0r-19,109r41,0r12,-69r385,0"},"8":{"d":"528,-210v-3,-89,-54,-142,-120,-168v83,-8,138,-54,160,-120v54,-162,-110,-262,-276,-213v-77,23,-138,79,-138,178v0,83,49,126,110,149v-77,13,-136,58,-166,121v-21,44,-23,105,-4,153v29,70,91,118,191,118v115,0,190,-52,226,-132v11,-26,17,-55,17,-86xm316,-355v125,-2,193,95,152,211v-24,66,-85,110,-177,111v-80,0,-134,-35,-154,-93v-35,-99,22,-185,97,-214v24,-10,51,-15,82,-15xm370,-683v95,1,165,39,165,128v0,98,-76,146,-180,146v-93,0,-159,-41,-159,-128v0,-70,45,-111,100,-133v22,-9,46,-13,74,-13"},"9":{"d":"365,-56v-62,36,-174,37,-239,9r-18,36v72,32,205,33,274,-9v96,-59,161,-170,194,-296v19,-78,27,-174,3,-250v-30,-92,-98,-155,-217,-155v-131,0,-208,69,-242,167v-20,58,-24,125,-2,183v32,80,99,138,210,138v104,0,167,-45,210,-105v-29,119,-77,227,-173,282xm442,-668v84,39,125,144,101,263v-39,71,-103,133,-214,133v-120,0,-185,-76,-185,-193v0,-99,50,-166,121,-201v49,-24,127,-25,177,-2"},":":{"d":"92,-62v-21,0,-36,16,-36,34v0,16,12,28,31,28v21,0,35,-15,36,-33v0,-16,-12,-29,-31,-29xm163,-469v-21,0,-36,16,-36,34v0,16,12,28,31,28v21,0,35,-15,36,-33v0,-16,-12,-29,-31,-29","w":163},";":{"d":"159,-54r-32,-15r-104,163r13,9xm183,-469v-21,0,-36,16,-36,34v0,16,12,28,31,28v21,0,35,-15,36,-33v0,-16,-12,-29,-31,-29","w":204},"<":{"d":"322,-529r-227,158r169,155r28,-25r-138,-129r189,-131","w":282},"=":{"d":"321,-331r-226,0r-7,41r226,0xm343,-453r-227,0r-7,41r227,0","w":296},">":{"d":"97,-216r224,-155r-172,-158r-28,25r141,128r-189,130","w":282},"?":{"d":"467,-540v0,133,-88,194,-223,188r-30,170r42,0r24,-132v101,-3,174,-50,208,-125v21,-45,28,-113,10,-167v-24,-68,-77,-118,-168,-118v-106,0,-162,60,-196,132r35,18v28,-57,72,-110,160,-110v88,0,138,57,138,144xm214,-68v-23,0,-38,19,-38,39v0,18,11,31,32,31v23,0,38,-18,38,-38v0,-19,-11,-32,-32,-32","w":437},"@":{"d":"304,-279v-100,0,-109,-125,-56,-179v21,-21,49,-39,90,-39v99,0,107,119,56,175v-21,23,-49,43,-90,43xm204,-424v-31,82,9,170,100,166v64,-3,99,-36,119,-80v-7,44,11,83,58,80v89,-5,122,-89,122,-179v0,-110,-62,-171,-145,-201v-68,-23,-155,-18,-214,10v-96,45,-169,131,-169,263v0,159,117,251,289,221v48,-8,92,-30,123,-53v12,-9,0,-22,-8,-16v-56,45,-183,75,-267,37v-70,-32,-117,-94,-117,-189v0,-122,67,-204,157,-245v55,-25,134,-32,197,-10v87,30,155,113,128,234v-12,52,-37,104,-96,107v-38,2,-46,-38,-38,-73r33,-159r-20,0r-13,64v-13,-44,-47,-70,-105,-70v-70,0,-114,41,-134,93","w":596},"A":{"d":"489,-679r75,424r-298,0xm222,-36r-71,0r96,-183r324,0r33,183r-71,0r-6,36r171,0r6,-36r-58,0r-117,-643r63,0r6,-35r-206,0r-6,35r63,0r-344,643r-66,0r-6,36r183,0","w":729},"B":{"d":"486,-393v68,-22,118,-70,118,-160v0,-103,-64,-161,-170,-161r-275,0r-6,35r77,0r-114,643r-76,0r-6,36r306,0v122,0,203,-48,240,-132v11,-26,16,-55,16,-85v-1,-92,-47,-149,-110,-176xm433,-679v83,1,130,47,130,126v0,95,-66,144,-157,144r-184,0r48,-270r163,0xm405,-373v96,3,149,61,149,156v0,92,-55,144,-127,168v-73,24,-178,9,-270,13r59,-337r189,0","w":592},"C":{"d":"685,-110v-54,48,-124,88,-231,86v-150,-1,-240,-78,-279,-190v-46,-133,5,-284,71,-360v66,-76,194,-135,335,-103v60,14,105,45,138,83r-12,71r41,0r32,-178r-41,0r-9,57v-49,-49,-128,-83,-228,-83v-132,-1,-226,54,-290,125v-80,88,-130,256,-78,402v45,127,147,215,319,216v120,1,198,-41,261,-96","w":721},"D":{"d":"748,-236v31,-85,35,-198,4,-284v-42,-113,-132,-194,-283,-194r-303,0r-6,35r77,0r-114,643r-76,0r-6,36r356,0v187,-2,299,-97,351,-236xm164,-36r114,-643r193,0v128,4,205,77,243,175v30,78,26,182,-5,258v-49,121,-147,210,-310,210r-235,0","w":756},"E":{"d":"569,-597r21,-117r-420,0r-6,35r77,0r-113,643r-77,0r-6,36r419,0r21,-116r-41,0r-14,80r-262,0r61,-342r199,0r-10,51r39,0r25,-140r-39,0r-9,51r-199,0r47,-263r261,0r-14,82r40,0","w":517},"F":{"d":"580,-597r20,-117r-419,0r-7,35r77,0r-113,643r-77,0r-6,36r194,0r6,-36r-76,0r60,-342r194,0r-10,51r41,0r25,-140r-41,0r-9,51r-194,0r47,-263r261,0r-14,82r41,0","w":525},"G":{"d":"743,-643v-58,-47,-134,-84,-241,-84v-132,-1,-226,56,-290,127v-80,88,-129,254,-78,400v45,128,147,216,319,216v154,0,247,-69,308,-161r-30,145r40,0r53,-304r76,0r7,-41r-378,0r-8,41r265,0v-44,152,-135,280,-332,280v-150,0,-240,-78,-278,-190v-45,-133,3,-283,70,-358v57,-63,139,-114,256,-114v103,0,179,44,232,93r-13,69r41,0r32,-178r-41,0","w":910},"H":{"d":"346,-679r6,-35r-194,0r-6,35r77,0r-114,643r-76,0r-6,36r194,0r6,-36r-77,0r59,-338r393,0r-59,338r-77,0r-6,36r193,0r6,-36r-76,0r113,-643r78,0r6,-35r-194,0r-6,35r76,0r-47,266r-393,0r47,-266r77,0","w":713},"I":{"d":"354,-679r6,-35r-194,0r-6,35r77,0r-114,643r-76,0r-6,36r194,0r6,-36r-77,0r114,-643r76,0","w":277},"J":{"d":"40,29v20,21,49,40,88,40v77,0,124,-59,145,-176r100,-566r62,0r7,-41r-174,0r-7,41r72,0r-100,566v-11,61,-29,107,-73,129v-34,16,-75,2,-90,-20","w":359},"K":{"d":"303,-679r6,-35r-145,0r-6,35r51,0r-113,643r-51,0r-6,36r145,0r6,-36r-51,0r55,-315r18,-14r209,329r-56,0r-6,36r172,0r6,-36r-57,0r-233,-361r332,-282r41,0r7,-35r-150,0r-7,35r52,0r-318,274r48,-274r51,0","w":567},"L":{"d":"338,-679r6,-35r-163,0r-7,35r62,0r-114,643r-65,0r-6,36r377,0r16,-97r-41,0r-10,61r-230,0r114,-643r61,0","w":460},"M":{"d":"879,-619r-104,583r-66,0r-6,36r174,0r6,-36r-67,0r114,-644r66,0r6,-34r-107,0r-417,629r-195,-629r-107,0r-7,34r67,0r-114,644r-66,0r-6,36r173,0r7,-36r-67,0r103,-583r194,633","w":943},"N":{"d":"768,-679r-103,585r-403,-620r-99,0r-6,35r77,0r-114,643r-76,0r-6,36r194,0r6,-36r-76,0r103,-588r407,626r16,0r120,-681r78,0r6,-35r-194,0r-6,35r76,0","w":804},"O":{"d":"816,-234v38,-87,39,-195,5,-284v-47,-124,-150,-206,-317,-206v-190,0,-309,105,-368,243v-36,86,-40,194,-6,283v47,123,148,208,316,208v190,0,310,-108,370,-244xm590,-60v-77,36,-188,39,-268,6v-104,-43,-174,-133,-174,-274v0,-166,92,-273,212,-327v77,-36,188,-39,268,-6v106,44,176,137,176,283v0,161,-96,264,-214,318","w":804},"P":{"d":"515,-389v44,-44,74,-140,43,-220v-24,-62,-78,-105,-163,-105r-226,0r-6,35r67,0r-114,643r-66,0r-6,36r173,0r6,-36r-66,0r51,-288v83,-2,177,8,236,-18v29,-12,52,-28,71,-47xm394,-679v83,-1,138,56,136,139v-2,113,-67,178,-182,178r-134,0r56,-317r124,0","w":512},"Q":{"d":"763,40v-42,18,-73,21,-128,21v-70,0,-104,-41,-166,-52v118,-5,209,-61,271,-127v58,-62,105,-151,105,-260v0,-165,-79,-271,-200,-320v-89,-37,-214,-33,-301,6v-135,60,-237,178,-237,364v0,154,74,255,183,307v40,19,86,29,137,31v-53,3,-103,17,-142,37r-6,39v52,-21,93,-35,150,-36v87,-2,118,52,206,52v49,0,84,-10,121,-21xm590,-60v-77,36,-188,39,-268,6v-104,-43,-174,-133,-174,-274v0,-166,92,-273,212,-327v77,-36,188,-39,268,-6v106,44,176,137,176,283v0,161,-96,264,-214,318","w":811},"R":{"d":"528,-390v44,-44,66,-142,37,-218v-23,-62,-72,-106,-153,-106r-234,0r-7,35r66,0r-113,643r-65,0r-7,36r172,0r8,-36r-67,0r51,-288r26,0r196,324r101,0r6,-36r-80,0r-179,-288v64,1,128,1,171,-18v29,-13,52,-29,71,-48xm407,-679v83,-1,132,63,130,147v-2,108,-63,170,-178,170r-137,0r57,-317r128,0","w":571},"S":{"d":"89,-83v40,59,103,98,195,98v107,0,175,-50,205,-127v29,-72,11,-161,-30,-211v-39,-47,-117,-83,-177,-115v-41,-22,-72,-48,-70,-110v2,-66,41,-105,91,-126v44,-18,110,-15,145,10v22,14,42,32,61,53r-9,50r36,0r25,-144r-36,0r-7,46v-34,-38,-81,-66,-152,-65v-90,1,-150,48,-179,111v-28,60,-10,139,25,173v44,44,129,70,178,108v43,34,73,72,73,144v0,105,-71,165,-180,165v-97,0,-148,-53,-184,-112r10,-63r-36,0r-35,198r35,0","w":524},"T":{"d":"620,-714r-438,0r-21,117r36,0r15,-82r164,0r-114,643r-76,0r-6,36r193,0r7,-36r-77,0r113,-643r160,0r-14,82r38,0","w":547},"U":{"d":"380,-42v-112,27,-233,-19,-212,-140r87,-491r61,0r7,-41r-163,0r-7,41r61,0r-85,489v-8,98,44,156,117,180v77,26,168,4,214,-34v40,-33,71,-80,82,-144r87,-491r61,0r7,-41r-163,0r-7,41r61,0r-88,495v-13,73,-53,120,-120,136","w":606},"V":{"d":"298,-714r-154,0r-6,35r51,0r96,691r340,-691r52,0r6,-35r-155,0r-7,35r62,0r-276,569r-76,-569r61,0","w":573},"W":{"d":"319,-714r-169,0r-6,35r67,0r97,689r286,-608r71,608r339,-689r74,0r6,-35r-188,0r-6,35r75,0r-274,565r-75,-610r-286,611r-78,-566r61,0","w":980},"X":{"d":"323,-714r-144,0r-7,35r51,0r121,316r-244,327r-56,0r-6,36r156,0r6,-36r-56,0r216,-293r117,293r-57,0r-6,36r155,0r6,-36r-56,0r-130,-327r233,-316r51,0r7,-35r-145,0r-6,35r51,0r-208,281r-106,-281r51,0","w":614},"Y":{"d":"302,-714r-145,0r-6,35r51,0r126,317r-58,326r-56,0r-6,36r152,0r6,-36r-56,0r57,-326r229,-317r51,0r6,-35r-146,0r-6,35r51,0r-195,278r-112,-278r51,0","w":583},"Z":{"d":"635,-714r-461,0r-22,129r41,0r16,-94r353,0r-538,679r485,0r24,-139r-41,0r-18,103r-373,0","w":564},"[":{"d":"294,-720r6,-35r-108,0r-141,801r111,0r6,-34r-71,0r130,-732r67,0","w":214},"\\":{"d":"267,0r-78,-714r-40,0r79,714r39,0","w":281},"]":{"d":"164,46r141,-801r-108,0r-6,35r67,0r-129,732r-71,0r-6,34r112,0","w":214},"^":{"d":"292,-735r-162,286r27,12r143,-247r55,249r30,-14r-63,-286r-30,0","w":352},"_":{"d":"366,36r-371,0r-6,35r371,0","w":357},"`":{"d":"290,-603r33,-29r-103,-125r-34,29","w":265},"a":{"d":"351,-483v89,0,154,46,140,143r-12,72v-32,-61,-92,-99,-186,-99v-106,0,-174,52,-206,126v-30,71,-7,157,33,196v33,32,80,55,145,55v88,0,140,-28,179,-74r-12,64r114,0r6,-36r-73,0r55,-313v26,-147,-137,-200,-276,-159v-30,9,-56,24,-79,43r23,33v35,-30,89,-51,149,-51xm268,-31v-114,0,-179,-88,-141,-196v22,-61,78,-100,164,-100v79,0,133,32,154,87v35,92,-24,169,-96,195v-23,9,-50,14,-81,14","w":566},"b":{"d":"404,-491v149,0,194,152,153,293v-26,90,-87,167,-199,169v-147,3,-194,-155,-153,-293v27,-90,87,-169,199,-169xm163,-145v26,86,79,156,192,157v90,0,151,-44,192,-97v54,-67,85,-190,53,-297v-25,-86,-84,-150,-193,-150v-102,0,-161,49,-198,114r60,-332r-102,0r-6,36r61,0r-119,678r-61,0r-6,36r102,0","w":594},"c":{"d":"475,-95v-30,30,-81,61,-147,60v-105,-2,-169,-53,-194,-132v-41,-131,21,-253,111,-301v62,-33,175,-26,215,14r20,17r-9,45r36,0r24,-125r-36,0r-7,32v-51,-50,-184,-57,-260,-20v-109,54,-185,201,-136,355v30,94,106,158,232,160v87,1,140,-34,182,-74","w":481},"d":{"d":"166,-90v-41,-50,-52,-151,-26,-231v20,-63,58,-116,110,-147v45,-27,118,-29,166,-6v82,39,112,165,78,275v-19,63,-57,114,-110,145v-45,27,-118,33,-166,8v-21,-11,-38,-26,-52,-44xm533,-402v-31,-72,-87,-130,-190,-130v-135,0,-206,91,-242,196v-32,95,-16,215,32,275v33,41,82,72,155,72v96,1,152,-40,190,-96r-15,85r102,0r6,-36r-61,0r126,-714r-115,0r-6,36r74,0","w":602},"e":{"d":"507,-132v-40,55,-96,101,-183,101v-94,0,-155,-50,-184,-119v-12,-31,-19,-66,-13,-103r437,0v12,-48,7,-115,-12,-155v-35,-74,-104,-122,-208,-122v-132,0,-209,82,-247,182v-25,66,-26,150,-1,213v35,87,109,145,227,145v109,0,170,-54,216,-117xm422,-474v66,29,112,89,102,180r-392,0v21,-110,89,-194,211,-195v30,0,56,5,79,15","w":554},"f":{"d":"365,-724v-35,-20,-109,-20,-135,13v-15,19,-26,39,-30,63r-22,133r-57,0r-8,41r56,0r-101,581r41,0r101,-581r98,0r8,-41r-98,0r22,-123v7,-39,22,-61,59,-63v23,-1,44,10,59,17","w":265},"g":{"d":"168,-90v-41,-50,-52,-151,-26,-231v20,-63,57,-116,109,-147v45,-27,118,-29,166,-6v82,39,112,165,78,275v-19,63,-56,114,-109,145v-45,27,-119,33,-167,8v-21,-11,-37,-26,-51,-44xm142,155v49,35,144,53,216,25v80,-30,136,-95,152,-189r79,-464r59,0r7,-36r-102,0r-19,107v-30,-73,-86,-132,-191,-130v-135,2,-206,90,-241,196v-31,95,-16,215,32,275v33,41,82,72,155,72v93,0,151,-38,189,-91v-10,49,-14,100,-37,137v-31,54,-81,94,-161,96v-55,1,-81,-14,-115,-32","w":594},"h":{"d":"515,-333v19,-116,-41,-198,-151,-198v-71,0,-115,31,-145,67r50,-286r-102,0r-6,36r61,0r-119,678r-61,0r-6,36r163,0r6,-36r-61,0r56,-319v18,-74,70,-131,160,-135v89,-3,131,65,115,157r-52,297r-61,0r-6,36r163,0r6,-36r-62,0","w":546},"i":{"d":"240,-515r-102,0r-8,41r61,0r-76,433r-61,0r-7,41r163,0r7,-41r-61,0xm247,-692v-21,0,-36,16,-36,34v0,16,12,28,31,28v21,0,35,-15,36,-33v0,-16,-12,-29,-31,-29","w":255},"j":{"d":"242,-515r-103,0r-8,41r61,0r-83,473v-12,64,-53,98,-111,114r15,32v72,-20,124,-64,138,-146xm247,-692v-21,0,-36,16,-36,34v0,16,12,28,31,28v21,0,35,-15,36,-33v0,-16,-12,-29,-31,-29","w":220},"k":{"d":"199,-291r81,-459r-102,0r-7,36r62,0r-120,678r-61,0r-6,36r163,0r6,-36r-61,0r37,-208r18,-15r184,223r-66,0r-7,36r174,0r6,-36r-54,0r-201,-248r227,-195r73,0r7,-36r-205,0r-7,36r80,0","w":527},"l":{"d":"156,-36r126,-714r-102,0r-7,36r62,0r-120,678r-61,0r-6,36r163,0r6,-36r-61,0","w":255},"m":{"d":"445,-455v-18,-42,-53,-71,-114,-72v-58,0,-94,21,-117,55r8,-43r-102,0r-7,35r61,0r-77,444r-61,0r-6,36r163,0r6,-36r-61,0r59,-337v8,-48,40,-85,79,-103v69,-32,150,13,136,95r-60,345r-61,0r-6,36r163,0r6,-36r-61,0r61,-350v14,-56,55,-97,121,-100v73,-3,102,50,89,122r-57,328r-61,0r-6,36r163,0r6,-36r-61,0r57,-327v17,-96,-32,-166,-122,-164v-67,1,-111,32,-138,72","w":725},"n":{"d":"530,-356v22,-129,-81,-197,-206,-168v-40,9,-70,32,-93,57r8,-48r-102,0r-7,35r61,0r-78,444r-61,0r-6,36r163,0r6,-36r-61,0r57,-329v19,-69,76,-120,162,-124v86,-3,131,52,115,143r-54,310r-62,0r-6,36r164,0r6,-36r-63,0","w":561},"o":{"d":"165,-100v-46,-49,-72,-151,-39,-237v34,-88,105,-153,225,-153v138,0,219,81,219,215v0,109,-58,183,-137,221v-54,26,-146,30,-201,4v-27,-12,-48,-30,-67,-50xm140,-442v-56,60,-92,180,-54,288v34,96,111,163,240,163v143,0,229,-74,268,-179v38,-102,7,-222,-47,-280v-43,-46,-107,-81,-196,-81v-96,0,-164,39,-211,89","w":597},"p":{"d":"395,-491v149,0,194,152,153,293v-26,90,-87,167,-199,169v-148,3,-195,-158,-153,-296v27,-89,86,-166,199,-166xm153,-141v22,88,81,152,193,153v90,0,151,-45,192,-97v54,-67,86,-189,54,-297v-25,-86,-85,-150,-194,-150v-99,0,-160,48,-197,109r17,-94r-100,0r-6,35r61,0r-107,626r-64,0r-6,36r162,0r7,-36r-61,0","w":608},"q":{"d":"168,-90v-41,-50,-52,-151,-26,-231v20,-63,57,-116,109,-147v45,-27,118,-29,166,-6v82,39,112,165,78,275v-19,63,-56,114,-109,145v-45,27,-119,33,-167,8v-21,-11,-37,-26,-51,-44xm534,-402v-29,-74,-89,-130,-191,-130v-135,0,-206,90,-241,196v-31,95,-16,215,32,275v33,41,82,72,155,72v92,0,157,-43,190,-96r-48,265r110,0r6,-36r-61,0r107,-617r55,0r7,-36r-102,0","w":602},"r":{"d":"418,-488v-18,-15,-45,-32,-86,-32v-48,0,-79,22,-97,50r8,-45r-103,0r-6,35r61,0r-78,444r-61,0r-6,36r163,0r6,-36r-61,0r65,-369v24,-42,51,-72,100,-75v31,-2,52,12,66,25","w":418},"s":{"d":"159,-391v-6,-95,112,-121,189,-83v23,11,40,26,51,43r-9,50r36,0r25,-143r-36,0r-8,44v-44,-58,-190,-65,-245,-10v-24,24,-43,54,-43,98v0,86,51,103,126,134v62,24,102,47,102,120v0,65,-55,105,-126,105v-61,0,-120,-38,-135,-84r8,-49r-36,0r-27,166r35,0r11,-64v21,42,77,70,145,69v78,-1,130,-35,154,-89v24,-55,3,-127,-28,-156v-25,-23,-56,-42,-92,-55v-56,-20,-93,-36,-97,-96","w":409},"t":{"d":"189,-22v-39,0,-43,-32,-37,-67r68,-391r98,0r8,-35r-98,0r27,-156r-41,0r-27,156r-56,0r-8,35r57,0r-70,394v-3,10,-2,21,-2,33v-4,71,89,82,139,51r7,-41v-16,11,-37,21,-65,21","w":327},"u":{"d":"136,-187v-21,122,39,196,155,196v68,0,114,-35,145,-70r-13,61r102,0r7,-36r-62,0r85,-479r-102,0r-7,35r61,0r-53,311v-13,56,-54,102,-102,126v-18,9,-37,14,-58,14v-87,1,-137,-42,-121,-135r62,-351r-102,0r-7,35r62,0","w":561},"v":{"d":"239,-480r7,-35r-128,0r-7,35r41,0r78,480r18,0r237,-480r40,0r8,-35r-128,0r-7,35r46,0r-184,379r-5,0r-62,-379r46,0","w":467},"w":{"d":"239,-480r7,-35r-128,0r-7,35r41,0r78,480r12,0r199,-412r58,412r13,0r236,-480r41,0r7,-35r-128,0r-7,35r46,0r-184,379r-59,-414r-10,0r-199,414r-62,-379r46,0","w":732},"x":{"d":"259,-515r-143,0r-7,35r50,0r92,227r-165,217r-53,0r-6,36r147,0r7,-36r-53,0r138,-184r79,184r-57,0r-6,36r148,0r6,-36r-50,0r-94,-216r178,-228r45,0r7,-35r-142,0r-8,35r55,0r-149,195r-78,-195r52,0","w":453},"y":{"d":"291,-480r7,-35r-174,0r-7,35r64,0r98,422r-129,225r-65,0r-7,36r171,0r7,-36r-63,0r369,-647r53,0r7,-35r-154,0r-7,35r58,0r-208,367r-84,-367r64,0","w":565},"z":{"d":"491,-515r-360,0r-23,124r41,0r15,-89r250,0r-392,480r378,0r20,-120r-40,0r-15,84r-262,0","w":434},"{":{"d":"134,-252v11,-42,-4,-79,-23,-103v24,-24,49,-46,56,-90r34,-189v8,-55,37,-83,101,-82r6,-34v-89,-1,-130,36,-143,112r-34,193v-6,40,-37,67,-61,90v20,22,35,61,27,104r-36,205v-9,71,34,99,107,97r4,-31v-66,5,-81,-29,-71,-86","w":184},"|":{"d":"81,46r140,-801r-34,0r-141,801r35,0","w":133},"}":{"d":"183,-460v-11,43,4,79,23,103v-28,19,-48,45,-56,90r-37,201v-8,55,-37,83,-101,82r-6,34v89,2,130,-37,143,-112r37,-205v8,-46,31,-66,61,-90v-20,-22,-34,-61,-27,-104r33,-193v9,-71,-34,-99,-107,-97r-4,31v66,-5,81,29,71,86","w":184},"~":{"d":"408,-429v-72,-1,-99,-47,-173,-46v-55,0,-84,24,-112,51r25,29v23,-20,45,-43,87,-41v68,2,94,48,170,48v50,0,86,-26,114,-47r-23,-30v-21,14,-51,37,-88,36","w":484},"\u00a0":{"w":352},"\u00a1":{"d":"-16,76r41,0r94,-532r-41,0xm122,-570v23,0,38,-19,38,-39v0,-18,-11,-31,-32,-31v-23,0,-38,18,-38,38v0,19,11,32,32,32","w":143},"\u00a2":{"d":"273,-131v-85,-26,-136,-95,-136,-201v0,-106,50,-183,123,-222v27,-14,57,-22,91,-22xm491,-181v-34,35,-99,70,-177,58r79,-451v46,7,78,25,103,51r-9,45r36,0r24,-125r-36,0r-7,32v-24,-18,-56,-39,-104,-43r9,-51r-42,0r-9,49v-91,0,-154,40,-197,90v-40,47,-68,117,-68,196v0,131,65,215,172,245r-9,51r42,0r8,-44v54,5,110,-1,144,-20v28,-15,53,-33,72,-52","w":471},"\u00a3":{"d":"290,-287v-11,-105,-99,-148,-102,-262v-1,-80,54,-130,134,-130v73,0,129,35,129,104r40,0v-3,-96,-68,-144,-165,-144v-86,0,-141,42,-166,104v-18,45,-14,104,4,147v19,46,44,84,66,126v10,19,16,37,18,55r-105,0r-6,41r107,0v-12,73,-52,128,-102,165v-44,4,-75,28,-102,54r27,32v26,-21,51,-46,101,-45v69,1,88,46,162,46v54,0,92,-31,122,-56r-26,-32v-28,31,-82,60,-136,41v-28,-9,-53,-33,-88,-37v43,-39,74,-99,85,-168r113,0r5,-41r-115,0","w":439},"\u00a4":{"d":"441,-693v-17,-25,-51,-49,-100,-49v-77,0,-133,46,-144,114r-19,113r-57,0r-7,35r56,0r-102,587r41,0r102,-587r97,0r7,-35r-97,0v14,-58,10,-133,50,-166v16,-14,40,-21,69,-21v46,1,77,24,84,62r-21,125r-56,0r-7,35r56,0r-102,587r41,0r102,-587r98,0r7,-35r-98,0r21,-123v8,-42,27,-64,73,-65v17,0,33,5,48,7r7,-41v-15,-3,-32,-6,-50,-6v-51,-1,-81,19,-99,50","w":485},"\u00a5":{"d":"202,-679r126,317r-102,0r-8,41r102,0r-10,56r-102,0r-7,41r102,0r-33,188r-56,0r-6,36r152,0r6,-36r-56,0r33,-188r102,0r7,-41r-102,0r10,-56r102,0r7,-41r-102,0r229,-317r51,0r6,-35r-146,0r-6,35r51,0r-195,278r-112,-278r51,0r6,-35r-145,0r-6,35r51,0","w":556},"\u00a6":{"d":"171,-469r50,-286r-34,0r-51,286r35,0xm89,0r50,-286r-34,0r-51,286r35,0","w":133},"\u00a7":{"d":"66,-82v20,56,63,106,142,104v93,-4,159,-51,159,-144v0,-54,-25,-92,-56,-114v45,-21,83,-57,83,-122v0,-84,-51,-115,-123,-133v-48,-13,-87,-33,-88,-89v-1,-53,47,-90,103,-90v58,0,78,31,96,69r37,-20v-22,-50,-59,-92,-133,-92v-69,1,-114,35,-136,83v-7,16,-10,33,-10,50v0,58,30,92,69,110v-50,18,-93,58,-95,124v-2,79,46,124,117,129v63,4,116,68,85,134v-17,36,-51,61,-104,62v-58,1,-91,-38,-106,-77xm356,-359v8,104,-157,143,-196,52v-5,-11,-8,-24,-8,-39v0,-59,44,-99,108,-101v62,-1,92,32,96,88","w":383},"\u00a8":{"d":"204,-692v-21,0,-36,16,-36,34v0,16,12,28,31,28v21,0,35,-15,36,-33v0,-16,-12,-29,-31,-29xm343,-692v-21,0,-36,16,-36,34v0,16,12,28,31,28v21,0,35,-15,36,-33v0,-16,-12,-29,-31,-29","w":315},"\u00a9":{"d":"319,-293v-67,-1,-110,-37,-110,-101v0,-64,43,-99,110,-100v43,-1,74,20,95,42r0,-24v-22,-20,-50,-39,-95,-38v-79,2,-130,44,-130,120v0,76,51,119,130,121v45,1,75,-17,95,-37r0,-31v-21,25,-45,50,-95,48xm562,-287v27,-63,27,-141,0,-204v-40,-90,-119,-161,-243,-161v-123,0,-203,71,-243,161v-27,63,-27,141,0,204v40,90,119,161,243,161v123,0,203,-71,243,-161xm96,-296v-25,-58,-25,-130,0,-188v37,-83,110,-149,224,-149v114,0,187,66,224,149v25,58,25,130,0,188v-37,83,-110,149,-224,149v-114,0,-187,-66,-224,-149","w":597},"\u00aa":{"d":"398,-337r-326,0r-5,26r325,0xm190,-639v49,-48,192,-44,173,55r-7,43v-18,-32,-54,-60,-111,-59v-64,1,-106,31,-123,76v-31,79,21,150,106,150v56,0,81,-17,107,-44r-7,38r68,0r4,-22r-44,0r34,-196v10,-108,-152,-116,-214,-61xm230,-399v-56,2,-91,-36,-91,-84v0,-59,41,-91,104,-93v60,-2,99,33,99,83v0,61,-47,92,-112,94","w":417},"\u00ab":{"d":"196,-71r21,-17r-138,-165r202,-170r-20,-21r-221,187xm354,-71r22,-17r-139,-165r202,-170r-20,-21r-221,187","w":439},"\u00ac":{"d":"381,-381r-286,0r-5,22r286,0xm313,-742r-55,0r-3,16r37,0r-51,289r-37,0r-3,16r92,0r3,-16r-37,0xm236,-167v44,-2,76,-40,76,-80v0,-46,-43,-78,-93,-76v-56,3,-96,30,-98,86v-1,36,25,58,50,67v-46,8,-83,38,-83,91v0,49,37,85,92,85v63,0,109,-39,110,-98v1,-38,-28,-66,-54,-75xm194,-157v45,-2,74,27,74,66v0,49,-34,77,-85,79v-46,2,-74,-28,-74,-67v0,-48,34,-76,85,-78xm218,-305v44,0,75,22,75,58v0,39,-34,66,-81,66v-42,0,-72,-23,-72,-58v0,-36,34,-66,78,-66","w":370},"\u00ad":{"d":"327,-392r-207,0r-7,41r206,0","w":309},"\u00ae":{"d":"271,-564v42,4,64,-21,65,-55v0,-26,-17,-44,-45,-43r-70,0r-23,182r14,0r11,-84r31,0r47,84r18,0xm290,-648v21,-1,32,11,32,30v0,21,-12,40,-41,40r-57,0r9,-70r57,0xm314,-426v75,-29,130,-120,96,-219v-22,-66,-110,-103,-194,-72v-75,28,-139,120,-102,220v18,50,64,83,132,84v24,0,47,-4,68,-13xm249,-428v-80,-3,-131,-46,-131,-125v0,-78,45,-127,102,-149v93,-36,186,14,186,113v0,76,-44,124,-98,149v-19,8,-38,12,-59,12","w":473},"\u00af":{"d":"483,-679r-355,0r-7,36r356,0","w":449},"\u00b0":{"d":"216,-698v-56,2,-91,33,-91,86v0,44,31,80,82,78v56,-2,93,-31,93,-84v0,-44,-33,-82,-84,-80xm207,-554v-38,0,-61,-26,-61,-58v0,-35,28,-66,70,-66v39,0,62,25,62,58v0,36,-29,66,-71,66","w":212},"\u00b1":{"d":"243,-392r-102,0r-7,41r102,0r-18,102r41,0r18,-102r102,0r7,-41r-102,0r18,-102r-41,0xm354,-211r-245,0r-7,41r245,0","w":383},"\u00b2":{"d":"375,-634v24,-56,-16,-112,-78,-110v-58,2,-92,29,-103,76r21,0v9,-35,36,-58,81,-58v36,-1,66,22,65,57v-2,54,-38,67,-80,91v-52,30,-103,59,-121,124r-9,34r187,0r4,-19r-161,0v15,-99,117,-111,175,-166v8,-9,14,-19,19,-29","w":370},"\u00b3":{"d":"365,-668v0,-78,-115,-99,-164,-52v-13,11,-22,28,-25,46r19,0v9,-33,33,-54,76,-54v43,-1,74,22,74,61v0,52,-48,70,-105,66r-3,18v55,-5,83,21,85,70v1,50,-38,78,-86,78v-40,0,-68,-24,-73,-53r-22,0v9,44,39,71,93,71v63,1,110,-37,109,-98v0,-38,-20,-61,-43,-75v38,-8,65,-31,65,-78","w":370},"\u00b4":{"d":"344,-728r-28,-32r-146,125r27,32","w":265},"\u00b5":{"d":"465,-43v-27,21,-107,32,-105,-22v0,-7,1,-15,3,-24r69,-391r97,0r7,-35r-97,0r19,-119v12,-109,-140,-135,-214,-78v-52,40,-51,123,-66,197r-57,0r-7,35r56,0r-102,587r41,0r102,-587r97,0r7,-35r-97,0v13,-58,13,-137,52,-168v48,-38,160,-25,147,54r-19,114r-57,0r-7,35r57,0r-73,415v-3,47,23,78,70,78v30,0,49,-7,70,-15","w":485},"\u00b6":{"d":"340,61r137,-775v-75,1,-158,-5,-212,16v-73,29,-124,87,-124,181v0,127,95,168,231,160r-73,418r41,0xm435,61r136,-775r-40,0r-137,775r41,0","w":505},"\u00b7":{"d":"125,-430v-26,0,-44,19,-44,41v0,19,14,34,37,34v27,0,45,-18,45,-40v0,-20,-15,-35,-38,-35","w":235},"\u00b8":{"d":"162,88v0,-23,-17,-40,-32,-48r20,-40r-43,0r-23,45v15,8,33,22,34,41v0,17,-10,26,-31,26v-20,0,-38,-16,-48,-26r-7,40v11,13,35,26,60,26v42,0,69,-27,70,-64","w":209},"\u00b9":{"d":"260,-743r-55,0r-3,16r37,0r-51,289r-37,0r-3,16r92,0r3,-16r-37,0","w":310},"\u00ba":{"d":"398,-337r-326,0r-5,26r325,0xm195,-689v-71,31,-118,117,-87,213v19,58,68,97,146,97v108,0,173,-65,173,-169v0,-96,-59,-153,-158,-156v-28,0,-53,5,-74,15xm255,-405v-100,2,-152,-86,-121,-182v18,-54,62,-91,135,-92v100,-2,154,86,122,182v-18,54,-63,91,-136,92","w":424},"\u00bb":{"d":"124,-429r139,168r-201,170r17,23r221,-189r-156,-188xm272,-429r139,168r-201,170r17,23r221,-189r-156,-188","w":439},"\u00bc":{"d":"381,-381r-286,0r-5,22r286,0xm314,-743r-55,0r-3,16r37,0r-51,289r-37,0r-3,16r92,0r3,-16r-37,0xm260,-91r40,-230r-13,0r-205,235r-2,13r158,0r-11,59r-18,0r-3,19r55,0r4,-19r-19,0r11,-59r28,0r4,-18r-29,0xm241,-91r-132,0r165,-190","w":370},"\u00bd":{"d":"381,-381r-286,0r-5,22r286,0xm313,-743r-55,0r-3,16r37,0r-51,289r-37,0r-3,16r92,0r3,-16r-37,0xm303,-212v24,-56,-16,-112,-78,-110v-58,2,-92,29,-103,76r21,0v9,-35,36,-58,81,-58v36,-1,66,22,65,57v-2,54,-38,67,-80,91v-52,30,-103,59,-121,124r-9,34r187,0r4,-19r-161,0v15,-99,117,-111,175,-166v8,-9,14,-19,19,-29","w":370},"\u00be":{"d":"381,-381r-286,0r-5,22r286,0xm365,-668v0,-78,-115,-99,-164,-52v-13,11,-22,28,-25,46r19,0v9,-33,33,-54,76,-54v43,-1,74,22,74,61v0,52,-48,70,-105,66r-3,18v55,-5,83,21,85,70v1,50,-38,78,-86,78v-40,0,-68,-24,-73,-53r-22,0v9,44,39,71,93,71v63,1,110,-37,109,-98v0,-38,-20,-61,-43,-75v38,-8,65,-31,65,-78xm260,-91r40,-230r-13,0r-205,235r-2,13r158,0r-11,59r-18,0r-3,19r55,0r4,-19r-19,0r11,-59r28,0r4,-18r-29,0xm241,-91r-132,0r165,-190","w":370},"\u00bf":{"d":"118,-107v0,-133,88,-194,223,-188r30,-170r-42,0r-24,132v-102,3,-172,50,-207,125v-21,45,-28,114,-10,168v24,68,76,117,167,117v106,0,162,-60,196,-132r-35,-18v-28,57,-73,110,-160,110v-89,0,-138,-57,-138,-144xm371,-579v23,0,38,-19,38,-39v0,-18,-11,-31,-32,-31v-23,0,-38,18,-38,38v0,19,11,32,32,32","w":439},"\u00c0":{"d":"501,-754r27,-23r-83,-100r-28,24xm489,-679r75,424r-298,0xm222,-36r-71,0r96,-183r324,0r33,183r-71,0r-6,36r171,0r6,-36r-58,0r-117,-643r63,0r6,-35r-206,0r-6,35r63,0r-344,643r-66,0r-6,36r183,0","w":729},"\u00c1":{"d":"623,-854r-21,-27r-117,100r21,26xm489,-679r75,424r-298,0xm222,-36r-71,0r96,-183r324,0r33,183r-71,0r-6,36r171,0r6,-36r-58,0r-117,-643r63,0r6,-35r-206,0r-6,35r63,0r-344,643r-66,0r-6,36r183,0","w":729},"\u00c2":{"d":"506,-869r-110,95r15,18r100,-85r70,85r21,-19r-78,-94r-18,0xm489,-679r75,424r-298,0xm222,-36r-71,0r96,-183r324,0r33,183r-71,0r-6,36r171,0r6,-36r-58,0r-117,-643r63,0r6,-35r-206,0r-6,35r63,0r-344,643r-66,0r-6,36r183,0","w":729},"\u00c3":{"d":"638,-827v-18,22,-68,38,-104,22v-27,-12,-47,-30,-89,-29v-50,0,-71,18,-102,39r27,27v20,-14,37,-27,71,-27v56,0,62,37,124,37v51,0,77,-25,101,-47xm489,-679r75,424r-298,0xm222,-36r-71,0r96,-183r324,0r33,183r-71,0r-6,36r171,0r6,-36r-58,0r-117,-643r63,0r6,-35r-206,0r-6,35r63,0r-344,643r-66,0r-6,36r183,0","w":729},"\u00c4":{"d":"436,-825v-21,0,-36,16,-36,34v0,16,12,28,31,28v21,0,35,-15,36,-33v0,-16,-12,-29,-31,-29xm575,-825v-21,0,-36,16,-36,34v0,16,12,28,31,28v21,0,35,-15,36,-33v0,-16,-12,-29,-31,-29xm489,-679r75,424r-298,0xm222,-36r-71,0r96,-183r324,0r33,183r-71,0r-6,36r171,0r6,-36r-58,0r-117,-643r63,0r6,-35r-206,0r-6,35r63,0r-344,643r-66,0r-6,36r183,0","w":729},"\u00c5":{"d":"505,-889v-50,2,-82,30,-82,78v0,40,28,70,74,70v49,0,83,-33,83,-76v0,-39,-30,-74,-75,-72xm497,-759v-34,0,-55,-23,-55,-52v0,-32,25,-60,63,-60v34,0,55,23,55,52v0,34,-24,60,-63,60xm489,-679r75,424r-298,0xm222,-36r-71,0r96,-183r324,0r33,183r-71,0r-6,36r171,0r6,-36r-58,0r-117,-643r63,0r6,-35r-206,0r-6,35r63,0r-344,643r-66,0r-6,36r183,0","w":729},"\u00c6":{"d":"490,-668r-53,301r-120,0xm367,-679r87,0r-368,643r-66,0r-6,36r179,0r6,-36r-71,0r167,-292r136,0r-51,292r-77,0r-6,36r419,0r21,-116r-41,0r-14,80r-262,0r61,-342r199,0r-10,51r39,0r25,-140r-39,0r-9,51r-199,0r47,-263r261,0r-14,82r40,0r21,-117r-469,0","w":747},"\u00c7":{"d":"474,88v0,-23,-15,-38,-31,-47r10,-25v120,1,198,-41,261,-96r-29,-30v-54,48,-124,88,-231,86v-150,-1,-240,-78,-279,-190v-46,-133,5,-284,71,-360v66,-76,194,-135,335,-103v60,14,105,45,138,83r-12,71r41,0r32,-178r-41,0r-9,57v-49,-49,-128,-83,-228,-83v-132,-1,-226,54,-290,125v-78,87,-128,249,-81,396v39,122,131,205,279,220r-14,31v15,8,34,22,34,41v0,19,-9,26,-31,26v-16,0,-40,-16,-48,-26r-7,40v11,13,35,26,60,26v42,0,69,-27,70,-64","w":673},"\u00c8":{"d":"413,-754r27,-23r-83,-100r-27,24xm569,-597r21,-117r-420,0r-6,35r77,0r-113,643r-77,0r-6,36r419,0r21,-116r-41,0r-14,80r-262,0r61,-342r199,0r-10,51r39,0r25,-140r-39,0r-9,51r-199,0r47,-263r261,0r-14,82r40,0","w":517},"\u00c9":{"d":"493,-854r-22,-27r-117,100r22,26xm569,-597r21,-117r-420,0r-6,35r77,0r-113,643r-77,0r-6,36r419,0r21,-116r-41,0r-14,80r-262,0r61,-342r199,0r-10,51r39,0r25,-140r-39,0r-9,51r-199,0r47,-263r261,0r-14,82r40,0","w":517},"\u00ca":{"d":"420,-865r-110,95r16,18r100,-85r69,85r21,-19r-77,-94r-19,0xm569,-597r21,-117r-420,0r-6,35r77,0r-113,643r-77,0r-6,36r419,0r21,-116r-41,0r-14,80r-262,0r61,-342r199,0r-10,51r39,0r25,-140r-39,0r-9,51r-199,0r47,-263r261,0r-14,82r40,0","w":517},"\u00cb":{"d":"346,-825v-21,0,-36,16,-36,34v0,16,12,28,31,28v21,0,35,-15,36,-33v0,-16,-12,-29,-31,-29xm485,-825v-21,0,-36,16,-36,34v0,16,12,28,31,28v21,0,35,-15,36,-33v0,-16,-12,-29,-31,-29xm569,-597r21,-117r-420,0r-6,35r77,0r-113,643r-77,0r-6,36r419,0r21,-116r-41,0r-14,80r-262,0r61,-342r199,0r-10,51r39,0r25,-140r-39,0r-9,51r-199,0r47,-263r261,0r-14,82r40,0","w":517},"\u00cc":{"d":"248,-754r26,-23r-82,-100r-28,24xm354,-679r6,-35r-194,0r-6,35r77,0r-114,643r-76,0r-6,36r194,0r6,-36r-77,0r114,-643r76,0","w":277},"\u00cd":{"d":"393,-854r-22,-27r-117,100r22,26xm354,-679r6,-35r-194,0r-6,35r77,0r-114,643r-76,0r-6,36r194,0r6,-36r-77,0r114,-643r76,0","w":277},"\u00ce":{"d":"278,-869r-111,95r16,18r100,-85r69,85r21,-19r-77,-94r-18,0xm354,-679r6,-35r-194,0r-6,35r77,0r-114,643r-76,0r-6,36r194,0r6,-36r-77,0r114,-643r76,0","w":277},"\u00cf":{"d":"201,-825v-21,0,-36,16,-36,34v0,16,12,28,31,28v21,0,35,-15,36,-33v0,-16,-12,-29,-31,-29xm340,-825v-21,0,-36,16,-36,34v0,16,12,28,31,28v21,0,35,-15,36,-33v0,-16,-12,-29,-31,-29xm354,-679r6,-35r-194,0r-6,35r77,0r-114,643r-76,0r-6,36r194,0r6,-36r-77,0r114,-643r76,0","w":278},"\u00d0":{"d":"220,-351r179,0r8,-41r-180,0r51,-287r193,0v128,4,205,77,243,175v30,78,26,182,-5,258v-49,121,-147,210,-310,210r-235,0xm179,-351r-56,315r-76,0r-6,36r356,0v187,-2,299,-97,351,-236v31,-85,35,-198,4,-284v-42,-113,-132,-194,-283,-194r-303,0r-6,35r77,0r-51,287r-81,0r-7,41r81,0","w":756},"\u00d1":{"d":"650,-827v-18,22,-68,38,-104,22v-27,-12,-47,-30,-89,-29v-50,0,-71,18,-102,39r27,27v20,-14,37,-27,71,-27v56,0,62,37,124,37v51,0,77,-25,101,-47xm768,-679r-103,585r-403,-620r-99,0r-6,35r77,0r-114,643r-76,0r-6,36r194,0r6,-36r-76,0r103,-588r407,626r16,0r120,-681r78,0r6,-35r-194,0r-6,35r76,0","w":804},"\u00d2":{"d":"513,-754r27,-23r-83,-100r-27,24xm816,-234v38,-87,39,-195,5,-284v-47,-124,-150,-206,-317,-206v-190,0,-309,105,-368,243v-36,86,-40,194,-6,283v47,123,148,208,316,208v190,0,310,-108,370,-244xm590,-60v-77,36,-188,39,-268,6v-104,-43,-174,-133,-174,-274v0,-166,92,-273,212,-327v77,-36,188,-39,268,-6v106,44,176,137,176,283v0,161,-96,264,-214,318","w":804},"\u00d3":{"d":"628,-854r-22,-27r-117,100r21,26xm816,-234v38,-87,39,-195,5,-284v-47,-124,-150,-206,-317,-206v-190,0,-309,105,-368,243v-36,86,-40,194,-6,283v47,123,148,208,316,208v190,0,310,-108,370,-244xm590,-60v-77,36,-188,39,-268,6v-104,-43,-174,-133,-174,-274v0,-166,92,-273,212,-327v77,-36,188,-39,268,-6v106,44,176,137,176,283v0,161,-96,264,-214,318","w":804},"\u00d4":{"d":"518,-869r-110,95r15,18r100,-85r70,85r21,-19r-77,-94r-19,0xm816,-234v38,-87,39,-195,5,-284v-47,-124,-150,-206,-317,-206v-190,0,-309,105,-368,243v-36,86,-40,194,-6,283v47,123,148,208,316,208v190,0,310,-108,370,-244xm590,-60v-77,36,-188,39,-268,6v-104,-43,-174,-133,-174,-274v0,-166,92,-273,212,-327v77,-36,188,-39,268,-6v106,44,176,137,176,283v0,161,-96,264,-214,318","w":804},"\u00d5":{"d":"635,-832v-18,22,-68,38,-104,22v-27,-12,-47,-30,-89,-29v-50,0,-71,18,-102,39r27,27v20,-14,37,-27,71,-27v56,0,62,37,124,37v51,0,77,-25,101,-47xm816,-234v38,-87,39,-195,5,-284v-47,-124,-150,-206,-317,-206v-190,0,-309,105,-368,243v-36,86,-40,194,-6,283v47,123,148,208,316,208v190,0,310,-108,370,-244xm590,-60v-77,36,-188,39,-268,6v-104,-43,-174,-133,-174,-274v0,-166,92,-273,212,-327v77,-36,188,-39,268,-6v106,44,176,137,176,283v0,161,-96,264,-214,318","w":804},"\u00d6":{"d":"440,-825v-21,0,-36,16,-36,34v0,16,12,28,31,28v21,0,35,-15,36,-33v0,-16,-12,-29,-31,-29xm579,-825v-21,0,-36,16,-36,34v0,16,12,28,31,28v21,0,35,-15,36,-33v0,-16,-12,-29,-31,-29xm816,-234v38,-87,39,-195,5,-284v-47,-124,-150,-206,-317,-206v-190,0,-309,105,-368,243v-36,86,-40,194,-6,283v47,123,148,208,316,208v190,0,310,-108,370,-244xm590,-60v-77,36,-188,39,-268,6v-104,-43,-174,-133,-174,-274v0,-166,92,-273,212,-327v77,-36,188,-39,268,-6v106,44,176,137,176,283v0,161,-96,264,-214,318","w":804},"\u00d7":{"d":"92,-413r-33,19r107,190r-148,183r29,21r139,-170r97,170r35,-20r-103,-180r153,-187r-27,-26r-145,179","w":385},"\u00d8":{"d":"233,-56v53,41,122,66,213,66v190,0,310,-108,370,-244v20,-47,29,-95,29,-144v0,-114,-41,-201,-102,-258r82,-94r-51,0r-60,69v-83,-67,-255,-83,-370,-31v-135,61,-237,178,-237,364v0,107,37,192,96,247r-87,99r52,0xm715,-604v53,52,89,127,89,226v0,161,-96,264,-214,318v-70,32,-169,39,-247,14v-31,-10,-58,-24,-82,-42xm231,-113v-50,-49,-83,-122,-83,-215v0,-166,92,-273,212,-327v69,-32,166,-39,244,-15v30,10,57,24,81,41","w":800},"\u00d9":{"d":"438,-754r26,-23r-82,-100r-28,24xm380,-42v-112,27,-233,-19,-212,-140r87,-491r61,0r7,-41r-163,0r-7,41r61,0r-85,489v-8,98,44,156,117,180v77,26,168,4,214,-34v40,-33,71,-80,82,-144r87,-491r61,0r7,-41r-163,0r-7,41r61,0r-88,495v-13,73,-53,120,-120,136","w":606},"\u00da":{"d":"560,-854r-21,-27r-118,100r22,26xm380,-42v-112,27,-233,-19,-212,-140r87,-491r61,0r7,-41r-163,0r-7,41r61,0r-85,489v-8,98,44,156,117,180v77,26,168,4,214,-34v40,-33,71,-80,82,-144r87,-491r61,0r7,-41r-163,0r-7,41r61,0r-88,495v-13,73,-53,120,-120,136","w":606},"\u00db":{"d":"449,-865r-110,95r15,18r100,-85r69,85r22,-19r-78,-94r-18,0xm380,-42v-112,27,-233,-19,-212,-140r87,-491r61,0r7,-41r-163,0r-7,41r61,0r-85,489v-8,98,44,156,117,180v77,26,168,4,214,-34v40,-33,71,-80,82,-144r87,-491r61,0r7,-41r-163,0r-7,41r61,0r-88,495v-13,73,-53,120,-120,136","w":606},"\u00dc":{"d":"372,-825v-21,0,-36,16,-36,34v0,16,12,28,31,28v21,0,35,-15,36,-33v0,-16,-12,-29,-31,-29xm511,-825v-21,0,-36,16,-36,34v0,16,12,28,31,28v21,0,35,-15,36,-33v0,-16,-12,-29,-31,-29xm380,-42v-112,27,-233,-19,-212,-140r87,-491r61,0r7,-41r-163,0r-7,41r61,0r-85,489v-8,98,44,156,117,180v77,26,168,4,214,-34v40,-33,71,-80,82,-144r87,-491r61,0r7,-41r-163,0r-7,41r61,0r-88,495v-13,73,-53,120,-120,136","w":606},"\u00dd":{"d":"302,-714r-145,0r-6,35r51,0r126,317r-58,326r-56,0r-6,36r152,0r6,-36r-56,0r57,-326r229,-317r51,0r6,-35r-146,0r-6,35r51,0r-195,278r-112,-278r51,0xm528,-854r-22,-27r-117,100r22,26","w":583},"\u00de":{"d":"370,-544v83,-1,138,56,136,139v-2,113,-67,178,-182,178r-133,0r56,-317r123,0xm252,-579r19,-100r65,0r6,-36r-173,0r-6,36r67,0r-114,643r-66,0r-6,36r173,0r6,-36r-66,0r27,-153v83,-2,176,8,236,-17v76,-32,126,-97,126,-199v0,-83,-43,-135,-103,-161v-49,-21,-124,-10,-191,-13","w":512},"\u00df":{"d":"381,-404v65,-26,110,-73,108,-165v-2,-93,-62,-145,-157,-145v-104,0,-167,75,-184,177r-21,124r-56,0r-8,41r57,0r-66,372r40,0r95,-536v14,-83,59,-137,143,-137v69,0,116,40,116,107v0,77,-46,122,-102,144v-18,6,-33,9,-48,9r-7,40v114,0,188,40,188,145v0,84,-44,142,-103,172v-50,25,-126,13,-196,16r-7,40v78,-2,159,7,215,-18v77,-35,132,-104,132,-211v0,-103,-60,-153,-139,-175","w":495},"\u00e0":{"d":"394,-603r34,-29r-104,-125r-34,29xm351,-483v89,0,154,46,140,143r-12,72v-32,-61,-92,-99,-186,-99v-106,0,-174,52,-206,126v-30,71,-7,157,33,196v33,32,80,55,145,55v88,0,140,-28,179,-74r-12,64r114,0r6,-36r-73,0r55,-313v26,-147,-137,-200,-276,-159v-30,9,-56,24,-79,43r23,33v35,-30,89,-51,149,-51xm268,-31v-114,0,-179,-88,-141,-196v22,-61,78,-100,164,-100v79,0,133,32,154,87v35,92,-24,169,-96,195v-23,9,-50,14,-81,14","w":566},"\u00e1":{"d":"525,-728r-27,-32r-146,125r27,32xm351,-483v89,0,154,46,140,143r-12,72v-32,-61,-92,-99,-186,-99v-106,0,-174,52,-206,126v-30,71,-7,157,33,196v33,32,80,55,145,55v88,0,140,-28,179,-74r-12,64r114,0r6,-36r-73,0r55,-313v26,-147,-137,-200,-276,-159v-30,9,-56,24,-79,43r23,33v35,-30,89,-51,149,-51xm268,-31v-114,0,-179,-88,-141,-196v22,-61,78,-100,164,-100v79,0,133,32,154,87v35,92,-24,169,-96,195v-23,9,-50,14,-81,14","w":566},"\u00e2":{"d":"393,-735r-138,119r21,23r125,-105r85,104r26,-23r-96,-118r-23,0xm351,-483v89,0,154,46,140,143r-12,72v-32,-61,-92,-99,-186,-99v-106,0,-174,52,-206,126v-30,71,-7,157,33,196v33,32,80,55,145,55v88,0,140,-28,179,-74r-12,64r114,0r6,-36r-73,0r55,-313v26,-147,-137,-200,-276,-159v-30,9,-56,24,-79,43r23,33v35,-30,89,-51,149,-51xm268,-31v-114,0,-179,-88,-141,-196v22,-61,78,-100,164,-100v79,0,133,32,154,87v35,92,-24,169,-96,195v-23,9,-50,14,-81,14","w":566},"\u00e3":{"d":"518,-672v-18,22,-68,38,-104,22v-27,-12,-47,-30,-89,-29v-50,0,-71,18,-102,39r27,27v20,-14,37,-27,71,-27v56,0,62,37,124,37v51,0,77,-25,101,-47xm351,-483v89,0,154,46,140,143r-12,72v-32,-61,-92,-99,-186,-99v-106,0,-174,52,-206,126v-30,71,-7,157,33,196v33,32,80,55,145,55v88,0,140,-28,179,-74r-12,64r114,0r6,-36r-73,0r55,-313v26,-147,-137,-200,-276,-159v-30,9,-56,24,-79,43r23,33v35,-30,89,-51,149,-51xm268,-31v-114,0,-179,-88,-141,-196v22,-61,78,-100,164,-100v79,0,133,32,154,87v35,92,-24,169,-96,195v-23,9,-50,14,-81,14","w":566},"\u00e4":{"d":"321,-692v-21,0,-36,16,-36,34v0,16,12,28,31,28v21,0,35,-15,36,-33v0,-16,-12,-29,-31,-29xm460,-692v-21,0,-36,16,-36,34v0,16,12,28,31,28v21,0,35,-15,36,-33v0,-16,-12,-29,-31,-29xm351,-483v89,0,154,46,140,143r-12,72v-32,-61,-92,-99,-186,-99v-106,0,-174,52,-206,126v-30,71,-7,157,33,196v33,32,80,55,145,55v88,0,140,-28,179,-74r-12,64r114,0r6,-36r-73,0r55,-313v26,-147,-137,-200,-276,-159v-30,9,-56,24,-79,43r23,33v35,-30,89,-51,149,-51xm268,-31v-114,0,-179,-88,-141,-196v22,-61,78,-100,164,-100v79,0,133,32,154,87v35,92,-24,169,-96,195v-23,9,-50,14,-81,14","w":566},"\u00e5":{"d":"399,-750v-56,2,-91,33,-91,86v0,44,31,80,82,78v56,-2,93,-31,93,-84v0,-44,-33,-82,-84,-80xm390,-606v-38,0,-61,-26,-61,-58v0,-35,28,-66,70,-66v39,0,62,25,62,58v0,36,-29,66,-71,66xm351,-483v89,0,154,46,140,143r-12,72v-32,-61,-92,-99,-186,-99v-106,0,-174,52,-206,126v-30,71,-7,157,33,196v33,32,80,55,145,55v88,0,140,-28,179,-74r-12,64r114,0r6,-36r-73,0r55,-313v26,-147,-137,-200,-276,-159v-30,9,-56,24,-79,43r23,33v35,-30,89,-51,149,-51xm268,-31v-114,0,-179,-88,-141,-196v22,-61,78,-100,164,-100v79,0,133,32,154,87v35,92,-24,169,-96,195v-23,9,-50,14,-81,14","w":566},"\u00e6":{"d":"956,-253v12,-48,7,-117,-12,-157v-35,-74,-104,-120,-208,-120v-96,0,-164,46,-207,105v-31,-85,-164,-118,-271,-83v-30,9,-56,24,-79,43r23,33v35,-30,89,-51,149,-51v89,0,154,46,140,143r-12,72v-32,-61,-92,-99,-186,-99v-106,0,-174,52,-206,126v-30,71,-7,157,33,196v33,32,80,55,145,55v88,0,140,-28,179,-74r-12,64r40,0r22,-122v39,96,163,156,294,122v65,-17,108,-59,143,-107r-32,-25v-40,55,-96,98,-183,98v-94,0,-155,-48,-184,-116v-12,-30,-19,-66,-13,-103r437,0xm268,-31v-114,0,-179,-88,-141,-196v22,-61,78,-100,164,-100v79,0,133,32,154,87v35,92,-24,169,-96,195v-23,9,-50,14,-81,14xm814,-474v64,28,111,87,102,175r-392,0v20,-110,92,-188,211,-190v30,0,56,5,79,15","w":959},"\u00e7":{"d":"475,-95v-30,30,-81,61,-147,60v-105,-2,-169,-53,-194,-132v-41,-131,21,-253,111,-301v62,-33,175,-26,215,14r20,17r-9,45r36,0r24,-125r-36,0r-7,32v-51,-50,-184,-58,-260,-20v-107,53,-183,195,-138,349v26,90,92,152,198,164r-18,37v15,8,34,22,34,41v0,19,-9,26,-31,26v-16,0,-40,-16,-48,-26r-7,40v11,13,35,26,60,26v42,0,69,-27,70,-64v0,-23,-15,-38,-31,-47r13,-31v84,-1,135,-35,176,-74","w":490},"\u00e8":{"d":"367,-603r34,-29r-103,-125r-35,29xm507,-132v-40,55,-96,101,-183,101v-94,0,-155,-50,-184,-119v-12,-31,-19,-66,-13,-103r437,0v12,-48,7,-115,-12,-155v-35,-74,-104,-122,-208,-122v-132,0,-209,82,-247,182v-25,66,-26,150,-1,213v35,87,109,145,227,145v109,0,170,-54,216,-117xm422,-474v66,29,112,89,102,180r-392,0v21,-110,89,-194,211,-195v30,0,56,5,79,15","w":551},"\u00e9":{"d":"491,-728r-28,-32r-146,125r27,32xm507,-132v-40,55,-96,101,-183,101v-94,0,-155,-50,-184,-119v-12,-31,-19,-66,-13,-103r437,0v12,-48,7,-115,-12,-155v-35,-74,-104,-122,-208,-122v-132,0,-209,82,-247,182v-25,66,-26,150,-1,213v35,87,109,145,227,145v109,0,170,-54,216,-117xm422,-474v66,29,112,89,102,180r-392,0v21,-110,89,-194,211,-195v30,0,56,5,79,15","w":551},"\u00ea":{"d":"360,-735r-138,119r21,23r124,-105r86,104r27,-23r-96,-118r-24,0xm507,-132v-40,55,-96,101,-183,101v-94,0,-155,-50,-184,-119v-12,-31,-19,-66,-13,-103r437,0v12,-48,7,-115,-12,-155v-35,-74,-104,-122,-208,-122v-132,0,-209,82,-247,182v-25,66,-26,150,-1,213v35,87,109,145,227,145v109,0,170,-54,216,-117xm422,-474v66,29,112,89,102,180r-392,0v21,-110,89,-194,211,-195v30,0,56,5,79,15","w":551},"\u00eb":{"d":"297,-692v-21,0,-36,16,-36,34v0,16,12,28,31,28v21,0,35,-15,36,-33v0,-16,-12,-29,-31,-29xm436,-692v-21,0,-36,16,-36,34v0,16,12,28,31,28v21,0,35,-15,36,-33v0,-16,-12,-29,-31,-29xm507,-132v-40,55,-96,101,-183,101v-94,0,-155,-50,-184,-119v-12,-31,-19,-66,-13,-103r437,0v12,-48,7,-115,-12,-155v-35,-74,-104,-122,-208,-122v-132,0,-209,82,-247,182v-25,66,-26,150,-1,213v35,87,109,145,227,145v109,0,170,-54,216,-117xm422,-474v66,29,112,89,102,180r-392,0v21,-110,89,-194,211,-195v30,0,56,5,79,15","w":551},"\u00ec":{"d":"232,-603r33,-29r-103,-125r-34,29xm252,-515r-102,0r-8,41r61,0r-75,433r-62,0r-7,41r163,0r8,-41r-62,0","w":255},"\u00ed":{"d":"374,-728r-27,-32r-146,125r27,32xm250,-515r-102,0r-8,41r61,0r-75,433r-62,0r-7,41r163,0r8,-41r-62,0","w":255},"\u00ee":{"d":"240,-735r-138,119r20,23r125,-105r86,104r26,-23r-96,-118r-23,0xm246,-515r-102,0r-8,41r61,0r-76,433r-61,0r-7,41r163,0r7,-41r-61,0","w":255},"\u00ef":{"d":"246,-515r-102,0r-8,41r61,0r-76,433r-61,0r-7,41r163,0r7,-41r-61,0xm174,-692v-21,0,-36,16,-36,34v0,16,12,28,31,28v21,0,35,-15,36,-33v0,-16,-12,-29,-31,-29xm313,-692v-21,0,-36,16,-36,34v0,16,12,28,31,28v21,0,35,-15,36,-33v0,-16,-12,-29,-31,-29","w":255},"\u00f0":{"d":"269,-380v127,0,203,112,157,232v-25,65,-80,114,-168,115v-101,2,-168,-66,-167,-168v2,-84,46,-138,107,-165v22,-9,46,-14,71,-14xm327,-599v-29,-21,-62,-40,-99,-51r-37,29v31,11,62,26,91,44r-94,55r37,26r92,-54v45,37,88,110,101,183v-46,-49,-158,-70,-236,-35v-73,33,-132,97,-132,197v0,134,75,213,208,213v108,0,174,-61,206,-140v10,-27,16,-55,16,-83v1,-164,-40,-278,-119,-356r98,-57r-37,-26","w":513},"\u00f1":{"d":"506,-672v-18,22,-68,38,-104,22v-27,-12,-47,-30,-89,-29v-50,0,-71,18,-102,39r27,27v20,-14,37,-27,71,-27v56,0,62,37,124,37v51,0,77,-25,101,-47xm530,-356v22,-129,-81,-197,-206,-168v-40,9,-70,32,-93,57r8,-48r-102,0r-7,35r61,0r-78,444r-61,0r-6,36r163,0r6,-36r-61,0r57,-329v19,-69,76,-120,162,-124v86,-3,131,52,115,143r-54,310r-62,0r-6,36r164,0r6,-36r-63,0"},"\u00f2":{"d":"386,-603r33,-29r-103,-125r-34,29xm165,-100v-46,-49,-72,-151,-39,-237v34,-88,105,-153,225,-153v138,0,219,81,219,215v0,109,-58,183,-137,221v-54,26,-146,30,-201,4v-27,-12,-48,-30,-67,-50xm140,-442v-56,60,-92,180,-54,288v34,96,111,163,240,163v143,0,229,-74,268,-179v38,-102,7,-222,-47,-280v-43,-46,-107,-81,-196,-81v-96,0,-164,39,-211,89","w":597},"\u00f3":{"d":"523,-728r-27,-32r-146,125r27,32xm165,-100v-46,-49,-72,-151,-39,-237v34,-88,105,-153,225,-153v138,0,219,81,219,215v0,109,-58,183,-137,221v-54,26,-146,30,-201,4v-27,-12,-48,-30,-67,-50xm140,-442v-56,60,-92,180,-54,288v34,96,111,163,240,163v143,0,229,-74,268,-179v38,-102,7,-222,-47,-280v-43,-46,-107,-81,-196,-81v-96,0,-164,39,-211,89","w":597},"\u00f4":{"d":"372,-735r-137,119r21,25r125,-105r84,102r27,-23r-96,-118r-24,0xm165,-100v-46,-49,-72,-151,-39,-237v34,-88,105,-153,225,-153v138,0,219,81,219,215v0,109,-58,183,-137,221v-54,26,-146,30,-201,4v-27,-12,-48,-30,-67,-50xm140,-442v-56,60,-92,180,-54,288v34,96,111,163,240,163v143,0,229,-74,268,-179v38,-102,7,-222,-47,-280v-43,-46,-107,-81,-196,-81v-96,0,-164,39,-211,89","w":597},"\u00f5":{"d":"506,-672v-18,22,-68,38,-104,22v-27,-12,-47,-30,-89,-29v-50,0,-71,18,-102,39r27,27v20,-14,37,-27,71,-27v56,0,62,37,124,37v51,0,77,-25,101,-47xm165,-100v-46,-49,-72,-151,-39,-237v34,-88,105,-153,225,-153v138,0,219,81,219,215v0,109,-58,183,-137,221v-54,26,-146,30,-201,4v-27,-12,-48,-30,-67,-50xm140,-442v-56,60,-92,180,-54,288v34,96,111,163,240,163v143,0,229,-74,268,-179v38,-102,7,-222,-47,-280v-43,-46,-107,-81,-196,-81v-96,0,-164,39,-211,89","w":597},"\u00f6":{"d":"297,-692v-21,0,-36,16,-36,34v0,16,12,28,31,28v21,0,35,-15,36,-33v0,-16,-12,-29,-31,-29xm436,-692v-21,0,-36,16,-36,34v0,16,12,28,31,28v21,0,35,-15,36,-33v0,-16,-12,-29,-31,-29xm165,-100v-46,-49,-72,-151,-39,-237v34,-88,105,-153,225,-153v138,0,219,81,219,215v0,109,-58,183,-137,221v-54,26,-146,30,-201,4v-27,-12,-48,-30,-67,-50xm140,-442v-56,60,-92,180,-54,288v34,96,111,163,240,163v143,0,229,-74,268,-179v38,-102,7,-222,-47,-280v-43,-46,-107,-81,-196,-81v-96,0,-164,39,-211,89","w":597},"\u00f7":{"d":"384,-392r-257,0r-8,41r258,0xm234,-282v-21,0,-36,16,-36,34v0,16,12,28,31,28v21,0,35,-15,36,-33v0,-16,-12,-29,-31,-29xm273,-518v-21,0,-36,16,-36,34v0,16,12,28,31,28v21,0,35,-15,36,-33v0,-16,-12,-29,-31,-29","w":362},"\u00f8":{"d":"86,-352v-43,115,-4,251,72,306r-51,68r41,0r37,-49v63,42,191,46,267,11v95,-44,162,-127,162,-256v0,-87,-35,-159,-89,-201r59,-78r-45,0r-43,57v-63,-42,-191,-49,-268,-12v-67,32,-117,84,-142,154xm185,-82v-64,-47,-93,-159,-59,-255v37,-104,148,-177,292,-145v20,5,38,13,53,22xm499,-440v62,48,91,158,55,252v-34,88,-105,152,-226,153v-45,0,-83,-9,-115,-28","w":593},"\u00f9":{"d":"365,-603r34,-29r-103,-125r-35,29xm136,-187v-21,122,39,196,155,196v68,0,114,-35,145,-70r-13,61r102,0r7,-36r-62,0r85,-479r-102,0r-7,35r61,0r-53,311v-13,56,-54,102,-102,126v-18,9,-37,14,-58,14v-87,1,-137,-42,-121,-135r62,-351r-102,0r-7,35r62,0","w":577},"\u00fa":{"d":"501,-728r-28,-32r-145,125r26,32xm136,-187v-21,122,39,196,155,196v68,0,114,-35,145,-70r-13,61r102,0r7,-36r-62,0r85,-479r-102,0r-7,35r61,0r-53,311v-13,56,-54,102,-102,126v-18,9,-37,14,-58,14v-87,1,-137,-42,-121,-135r62,-351r-102,0r-7,35r62,0","w":577},"\u00fb":{"d":"385,-735r-138,119r19,22r125,-105r87,105r26,-23r-96,-118r-23,0xm136,-187v-21,122,39,196,155,196v68,0,114,-35,145,-70r-13,61r102,0r7,-36r-62,0r85,-479r-102,0r-7,35r61,0r-53,311v-13,56,-54,102,-102,126v-18,9,-37,14,-58,14v-87,1,-137,-42,-121,-135r62,-351r-102,0r-7,35r62,0","w":577},"\u00fc":{"d":"317,-692v-21,0,-36,16,-36,34v0,16,12,28,31,28v21,0,35,-15,36,-33v0,-16,-12,-29,-31,-29xm456,-692v-21,0,-36,16,-36,34v0,16,12,28,31,28v21,0,35,-15,36,-33v0,-16,-12,-29,-31,-29xm136,-187v-21,122,39,196,155,196v68,0,114,-35,145,-70r-13,61r102,0r7,-36r-62,0r85,-479r-102,0r-7,35r61,0r-53,311v-13,56,-54,102,-102,126v-18,9,-37,14,-58,14v-87,1,-137,-42,-121,-135r62,-351r-102,0r-7,35r62,0","w":577},"\u00fd":{"d":"291,-480r7,-35r-174,0r-7,35r64,0r98,422r-129,225r-65,0r-7,36r171,0r7,-36r-63,0r369,-647r53,0r7,-35r-154,0r-7,35r58,0r-208,367r-84,-367r64,0xm539,-728r-28,-32r-146,125r27,32","w":565},"\u00fe":{"d":"395,-491v149,0,194,152,153,293v-26,90,-87,167,-199,169v-147,3,-194,-155,-153,-293v27,-90,87,-169,199,-169xm152,-132v27,80,83,144,194,144v90,0,151,-45,192,-97v54,-67,86,-189,54,-297v-25,-86,-85,-150,-194,-150v-99,0,-160,48,-197,109r57,-327r-99,0r-6,35r61,0r-148,859r-64,0r-6,36r162,0r7,-36r-61,0","w":608},"\u00ff":{"d":"334,-692v-21,0,-36,16,-36,34v0,16,12,28,31,28v21,0,35,-15,36,-33v0,-16,-12,-29,-31,-29xm473,-692v-21,0,-36,16,-36,34v0,16,12,28,31,28v21,0,35,-15,36,-33v0,-16,-12,-29,-31,-29xm291,-480r7,-35r-174,0r-7,35r64,0r98,422r-129,225r-65,0r-7,36r171,0r7,-36r-63,0r369,-647r53,0r7,-35r-154,0r-7,35r58,0r-208,367r-84,-367r64,0","w":565},"\u0152":{"d":"829,-493v-43,-139,-148,-231,-325,-231v-190,0,-309,105,-368,243v-36,86,-40,194,-6,283v47,123,148,207,316,208v148,1,257,-72,322,-161r-20,115r-52,0r-6,36r395,0r20,-116r-41,0r-14,80r-261,0r60,-342r199,0r-9,51r39,0r24,-140r-39,0r-9,51r-199,0r47,-263r261,0r-14,82r41,0r20,-117r-419,0r-6,35r77,0xm590,-60v-77,36,-188,39,-268,6v-104,-43,-174,-133,-174,-274v0,-166,92,-273,212,-327v77,-36,188,-39,268,-6v108,46,176,144,176,295v0,155,-99,254,-214,306","w":1182},"\u0153":{"d":"165,-101v-47,-48,-72,-151,-39,-236v34,-88,105,-153,225,-153v138,0,219,81,219,215v0,109,-58,182,-137,219v-54,26,-146,28,-201,3v-27,-12,-48,-29,-67,-48xm600,-362v-36,-100,-114,-169,-249,-169v-142,0,-225,76,-265,179v-39,101,-9,224,46,281v43,45,106,81,194,80v137,-2,219,-66,262,-161v31,116,160,189,306,152v65,-17,108,-59,143,-107r-32,-25v-40,55,-96,98,-183,98v-94,0,-155,-48,-184,-116v-12,-30,-19,-66,-13,-103r437,0v12,-48,7,-117,-12,-157v-35,-74,-104,-120,-208,-120v-130,0,-200,75,-242,168xm920,-474v64,28,111,87,102,175r-392,0v20,-110,92,-188,211,-190v30,0,56,5,79,15","w":1071},"\u0178":{"d":"357,-825v-21,0,-36,16,-36,34v0,16,12,28,31,28v21,0,35,-15,36,-33v0,-16,-12,-29,-31,-29xm496,-825v-21,0,-36,16,-36,34v0,16,12,28,31,28v21,0,35,-15,36,-33v0,-16,-12,-29,-31,-29xm302,-714r-145,0r-6,35r51,0r126,317r-58,326r-56,0r-6,36r152,0r6,-36r-56,0r57,-326r229,-317r51,0r6,-35r-146,0r-6,35r51,0r-195,278r-112,-278r51,0","w":583},"\u02c6":{"d":"295,-735r-138,119r22,22r124,-105r85,105r26,-23r-96,-118r-23,0","w":352},"\u02dc":{"d":"463,-672v-18,22,-68,38,-104,22v-27,-12,-47,-30,-89,-29v-50,0,-71,18,-102,39r27,27v20,-14,37,-27,71,-27v56,0,62,37,124,37v51,0,77,-25,101,-47","w":433},"\u2013":{"d":"424,-290r-331,0r-7,41r331,0","w":413},"\u2014":{"d":"833,-290r-720,0r-7,41r719,0","w":842},"\u2018":{"d":"169,-542r13,-71r-33,0v5,-46,16,-86,38,-115r-29,0v-33,44,-36,122,-50,186r61,0","w":164},"\u2019":{"d":"179,-737r-13,71r33,0v-5,46,-16,86,-38,115r29,0v33,-44,36,-122,50,-186r-61,0","w":211},"\u201a":{"d":"93,-161r-13,71r33,0v-5,46,-16,86,-38,115r29,0v33,-44,36,-122,50,-186r-61,0","w":184},"\u201c":{"d":"217,-542r13,-71r-33,0v5,-46,16,-86,38,-115r-29,0v-33,44,-36,122,-50,186r61,0xm348,-542r13,-71r-33,0v5,-46,16,-86,38,-115r-29,0v-33,44,-36,122,-50,186r61,0","w":378},"\u201d":{"d":"310,-737r-13,71r33,0v-5,46,-16,86,-38,115r29,0v33,-44,36,-122,50,-186r-61,0xm179,-737r-13,71r33,0v-5,46,-16,86,-38,115r29,0v33,-44,36,-122,50,-186r-61,0","w":373},"\u201e":{"d":"224,-161r-13,71r33,0v-5,46,-16,86,-38,115r29,0v33,-44,36,-122,50,-186r-61,0xm93,-161r-13,71r33,0v-5,46,-16,86,-38,115r29,0v33,-44,36,-122,50,-186r-61,0","w":301},"\u2022":{"d":"168,-184v110,40,204,-55,164,-162v-20,-55,-93,-94,-164,-66v-54,21,-94,93,-66,164v12,30,36,53,66,64","w":334},"\u2026":{"d":"70,-62v-21,0,-36,16,-36,34v0,16,12,28,31,28v21,0,35,-15,36,-33v0,-16,-12,-29,-31,-29xm215,-62v-21,0,-36,16,-36,34v0,16,12,28,31,28v21,0,35,-15,36,-33v0,-16,-12,-29,-31,-29xm360,-62v-21,0,-36,16,-36,34v0,16,12,28,31,28v21,0,35,-15,36,-33v0,-16,-12,-29,-31,-29","w":418},"\u2039":{"d":"232,-71r21,-17r-139,-165r202,-170r-19,-21r-221,187","w":290},"\u203a":{"d":"124,-429r139,168r-201,170r17,23r221,-189r-156,-188","w":290},"\u2122":{"d":"228,-706r-109,0r-1,6r51,0r-19,154r7,0r19,-154r51,0xm259,-708r-55,161r7,0r47,-136r31,144r68,-144r12,136r7,0r-14,-161r-70,145","w":422}}});
